<?xml version="1.0"?>
<opencv_storage>
<cascade>
  <stageType>BOOST</stageType>
  <featureType>HAAR</featureType>
  <height>24</height>
  <width>24</width>
  <stageParams>
    <boostType>GAB</boostType>
    <minHitRate>9.9900001287460327e-01</minHitRate>
    <maxFalseAlarm>3.0000001192092896e-01</maxFalseAlarm>
    <weightTrimRate>9.4999999999999996e-01</weightTrimRate>
    <maxDepth>1</maxDepth>
    <maxWeakCount>100</maxWeakCount></stageParams>
  <featureParams>
    <maxCatCount>0</maxCatCount>
    <featSize>1</featSize>
    <mode>BASIC</mode></featureParams>
  <stageNum>10</stageNum>
  <stages>
    <!-- stage 0 -->
    <_>
      <maxWeakCount>6</maxWeakCount>
      <stageThreshold>-1.9169169664382935e+00</stageThreshold>
      <weakClassifiers>
        <_>
          <internalNodes>
            0 -1 87 -7.1422807872295380e-02</internalNodes>
          <leafValues>
            -9.2316740751266479e-01 7.9064589738845825e-01</leafValues></_>
        <_>
          <internalNodes>
            0 -1 23 2.0499402657151222e-02</internalNodes>
          <leafValues>
            -8.4600603580474854e-01 6.4849126338958740e-01</leafValues></_>
        <_>
          <internalNodes>
            0 -1 71 -1.4758154749870300e-01</internalNodes>
          <leafValues>
            -9.1912221908569336e-01 4.0511286258697510e-01</leafValues></_>
        <_>
          <internalNodes>
            0 -1 73 3.1810377258807421e-03</internalNodes>
          <leafValues>
            -6.0279345512390137e-01 7.0305776596069336e-01</leafValues></_>
        <_>
          <internalNodes>
            0 -1 3 -2.4205390363931656e-02</internalNodes>
          <leafValues>
            7.9583710432052612e-01 -3.8635602593421936e-01</leafValues></_>
        <_>
          <internalNodes>
            0 -1 75 3.6141723394393921e-03</internalNodes>
          <leafValues>
            -7.3115462064743042e-01 4.5467698574066162e-01</leafValues></_></weakClassifiers></_>
    <!-- stage 1 -->
    <_>
      <maxWeakCount>7</maxWeakCount>
      <stageThreshold>-1.9174205064773560e+00</stageThreshold>
      <weakClassifiers>
        <_>
          <internalNodes>
            0 -1 47 -9.8263174295425415e-03</internalNodes>
          <leafValues>
            5.9154927730560303e-01 -8.7490290403366089e-01</leafValues></_>
        <_>
          <internalNodes>
            0 -1 91 2.1243594586849213e-02</internalNodes>
          <leafValues>
            -7.7541524171829224e-01 5.6815850734710693e-01</leafValues></_>
        <_>
          <internalNodes>
            0 -1 38 -1.9128172099590302e-01</internalNodes>
          <leafValues>
            -7.1814751625061035e-01 4.5564162731170654e-01</leafValues></_>
        <_>
          <internalNodes>
            0 -1 55 2.7586217038333416e-03</internalNodes>
          <leafValues>
            -9.2560231685638428e-01 3.1133604049682617e-01</leafValues></_>
        <_>
          <internalNodes>
            0 -1 16 -5.1804920658469200e-03</internalNodes>
          <leafValues>
            3.2774782180786133e-01 -7.9014295339584351e-01</leafValues></_>
        <_>
          <internalNodes>
            0 -1 53 -2.3978855460882187e-02</internalNodes>
          <leafValues>
            3.4893894195556641e-01 -6.5045493841171265e-01</leafValues></_>
        <_>
          <internalNodes>
            0 -1 17 -3.8048330694437027e-02</internalNodes>
          <leafValues>
            6.1872929334640503e-01 -4.7382846474647522e-01</leafValues></_></weakClassifiers></_>
    <!-- stage 2 -->
    <_>
      <maxWeakCount>8</maxWeakCount>
      <stageThreshold>-2.0900397300720215e+00</stageThreshold>
      <weakClassifiers>
        <_>
          <internalNodes>
            0 -1 66 1.1905084364116192e-02</internalNodes>
          <leafValues>
            -8.6393004655838013e-01 7.3983740806579590e-01</leafValues></_>
        <_>
          <internalNodes>
            0 -1 36 2.2796472534537315e-02</internalNodes>
          <leafValues>
            -7.3949241638183594e-01 4.8931431770324707e-01</leafValues></_>
        <_>
          <internalNodes>
            0 -1 83 4.3565090745687485e-03</internalNodes>
          <leafValues>
            -5.0345039367675781e-01 8.0697745084762573e-01</leafValues></_>
        <_>
          <internalNodes>
            0 -1 32 -1.4146645553410053e-03</internalNodes>
          <leafValues>
            -8.5119140148162842e-01 3.4836050868034363e-01</leafValues></_>
        <_>
          <internalNodes>
            0 -1 89 -4.2552739381790161e-02</internalNodes>
          <leafValues>
            -7.3039847612380981e-01 3.2862642407417297e-01</leafValues></_>
        <_>
          <internalNodes>
            0 -1 101 6.3066463917493820e-03</internalNodes>
          <leafValues>
            -3.5747858881950378e-01 7.0920443534851074e-01</leafValues></_>
        <_>
          <internalNodes>
            0 -1 7 2.4918483104556799e-03</internalNodes>
          <leafValues>
            -5.3388601541519165e-01 4.8251014947891235e-01</leafValues></_>
        <_>
          <internalNodes>
            0 -1 12 2.4981264024972916e-02</internalNodes>
          <leafValues>
            2.7383971214294434e-01 -9.3282085657119751e-01</leafValues></_></weakClassifiers></_>
    <!-- stage 3 -->
    <_>
      <maxWeakCount>9</maxWeakCount>
      <stageThreshold>-2.0871160030364990e+00</stageThreshold>
      <weakClassifiers>
        <_>
          <internalNodes>
            0 -1 26 2.6727367192506790e-02</internalNodes>
          <leafValues>
            -8.3693224191665649e-01 7.8980892896652222e-01</leafValues></_>
        <_>
          <internalNodes>
            0 -1 41 7.1897297166287899e-03</internalNodes>
          <leafValues>
            -6.3287824392318726e-01 6.9292080402374268e-01</leafValues></_>
        <_>
          <internalNodes>
            0 -1 98 9.4510708004236221e-03</internalNodes>
          <leafValues>
            -5.0104713439941406e-01 5.9287387132644653e-01</leafValues></_>
        <_>
          <internalNodes>
            0 -1 80 3.4403121098875999e-03</internalNodes>
          <leafValues>
            -8.3631104230880737e-01 3.4837275743484497e-01</leafValues></_>
        <_>
          <internalNodes>
            0 -1 29 -2.5506466627120972e-03</internalNodes>
          <leafValues>
            3.0056464672088623e-01 -7.6782804727554321e-01</leafValues></_>
        <_>
          <internalNodes>
            0 -1 39 3.7250847090035677e-03</internalNodes>
          <leafValues>
            2.2689843177795410e-01 -8.1890606880187988e-01</leafValues></_>
        <_>
          <internalNodes>
            0 -1 19 -1.8531328067183495e-02</internalNodes>
          <leafValues>
            5.2717113494873047e-01 -3.7778937816619873e-01</leafValues></_>
        <_>
          <internalNodes>
            0 -1 30 3.4566610120236874e-03</internalNodes>
          <leafValues>
            2.7816167473793030e-01 -7.4528068304061890e-01</leafValues></_>
        <_>
          <internalNodes>
            0 -1 25 1.8764140084385872e-02</internalNodes>
          <leafValues>
            -8.0170369148254395e-01 2.0888383686542511e-01</leafValues></_></weakClassifiers></_>
    <!-- stage 4 -->
    <_>
      <maxWeakCount>12</maxWeakCount>
      <stageThreshold>-2.5519449710845947e+00</stageThreshold>
      <weakClassifiers>
        <_>
          <internalNodes>
            0 -1 73 8.3654113113880157e-03</internalNodes>
          <leafValues>
            -8.6904299259185791e-01 5.7995223999023438e-01</leafValues></_>
        <_>
          <internalNodes>
            0 -1 90 -1.7320532351732254e-02</internalNodes>
          <leafValues>
            2.1236424148082733e-01 -7.8638702630996704e-01</leafValues></_>
        <_>
          <internalNodes>
            0 -1 18 -2.7844730764627457e-02</internalNodes>
          <leafValues>
            4.9299773573875427e-01 -5.3352952003479004e-01</leafValues></_>
        <_>
          <internalNodes>
            0 -1 35 -3.2541544642299414e-03</internalNodes>
          <leafValues>
            3.3272108435630798e-01 -6.4072042703628540e-01</leafValues></_>
        <_>
          <internalNodes>
            0 -1 40 -6.3172923400998116e-03</internalNodes>
          <leafValues>
            -7.6175123453140259e-01 2.7914974093437195e-01</leafValues></_>
        <_>
          <internalNodes>
            0 -1 70 1.3155508786439896e-02</internalNodes>
          <leafValues>
            2.2095367312431335e-01 -7.7729040384292603e-01</leafValues></_>
        <_>
          <internalNodes>
            0 -1 88 -3.4561683423817158e-03</internalNodes>
          <leafValues>
            6.8091183900833130e-01 -2.8470361232757568e-01</leafValues></_>
        <_>
          <internalNodes>
            0 -1 27 -1.1109267361462116e-03</internalNodes>
          <leafValues>
            -6.4933866262435913e-01 2.7403217554092407e-01</leafValues></_>
        <_>
          <internalNodes>
            0 -1 31 -2.4586811661720276e-02</internalNodes>
          <leafValues>
            6.1605262756347656e-01 -3.1118565797805786e-01</leafValues></_>
        <_>
          <internalNodes>
            0 -1 99 -1.1237487196922302e-02</internalNodes>
          <leafValues>
            8.2998222112655640e-01 -2.3161171376705170e-01</leafValues></_>
        <_>
          <internalNodes>
            0 -1 2 -1.9844634458422661e-02</internalNodes>
          <leafValues>
            5.4272037744522095e-01 -3.1568273901939392e-01</leafValues></_>
        <_>
          <internalNodes>
            0 -1 97 -3.3954991959035397e-03</internalNodes>
          <leafValues>
            5.9395092725753784e-01 -2.8700038790702820e-01</leafValues></_></weakClassifiers></_>
    <!-- stage 5 -->
    <_>
      <maxWeakCount>12</maxWeakCount>
      <stageThreshold>-2.3200273513793945e+00</stageThreshold>
      <weakClassifiers>
        <_>
          <internalNodes>
            0 -1 72 -1.1756804771721363e-02</internalNodes>
          <leafValues>
            6.0227274894714355e-01 -8.3534741401672363e-01</leafValues></_>
        <_>
          <internalNodes>
            0 -1 20 6.2590956687927246e-02</internalNodes>
          <leafValues>
            -5.7003968954086304e-01 4.9433326721191406e-01</leafValues></_>
        <_>
          <internalNodes>
            0 -1 96 5.9776222333312035e-03</internalNodes>
          <leafValues>
            -5.0532883405685425e-01 4.9080708622932434e-01</leafValues></_>
        <_>
          <internalNodes>
            0 -1 24 4.7570932656526566e-03</internalNodes>
          <leafValues>
            -5.4968863725662231e-01 4.1237729787826538e-01</leafValues></_>
        <_>
          <internalNodes>
            0 -1 44 -1.3041820377111435e-02</internalNodes>
          <leafValues>
            -9.0262174606323242e-01 1.9446340203285217e-01</leafValues></_>
        <_>
          <internalNodes>
            0 -1 61 -9.8662311211228371e-04</internalNodes>
          <leafValues>
            -8.6472851037979126e-01 1.8709971010684967e-01</leafValues></_>
        <_>
          <internalNodes>
            0 -1 9 1.5663094818592072e-02</internalNodes>
          <leafValues>
            -3.4991261363029480e-01 5.2794021368026733e-01</leafValues></_>
        <_>
          <internalNodes>
            0 -1 49 -1.9344836473464966e-03</internalNodes>
          <leafValues>
            2.2747673094272614e-01 -7.9998433589935303e-01</leafValues></_>
        <_>
          <internalNodes>
            0 -1 54 7.5451843440532684e-04</internalNodes>
          <leafValues>
            2.1340012550354004e-01 -7.2406274080276489e-01</leafValues></_>
        <_>
          <internalNodes>
            0 -1 37 -1.3029212132096291e-02</internalNodes>
          <leafValues>
            8.5310608148574829e-01 -2.2739799320697784e-01</leafValues></_>
        <_>
          <internalNodes>
            0 -1 63 8.3701417315751314e-04</internalNodes>
          <leafValues>
            2.4428260326385498e-01 -8.0296474695205688e-01</leafValues></_>
        <_>
          <internalNodes>
            0 -1 95 -1.6794338589534163e-03</internalNodes>
          <leafValues>
            4.5850083231925964e-01 -3.7363788485527039e-01</leafValues></_></weakClassifiers></_>
    <!-- stage 6 -->
    <_>
      <maxWeakCount>12</maxWeakCount>
      <stageThreshold>-1.9150022268295288e+00</stageThreshold>
      <weakClassifiers>
        <_>
          <internalNodes>
            0 -1 15 6.3058673404157162e-03</internalNodes>
          <leafValues>
            -8.2743030786514282e-01 5.6647396087646484e-01</leafValues></_>
        <_>
          <internalNodes>
            0 -1 52 -4.5166681520640850e-03</internalNodes>
          <leafValues>
            4.9378111958503723e-01 -6.2613701820373535e-01</leafValues></_>
        <_>
          <internalNodes>
            0 -1 64 -6.3654209952801466e-04</internalNodes>
          <leafValues>
            -7.7831888198852539e-01 2.1719227731227875e-01</leafValues></_>
        <_>
          <internalNodes>
            0 -1 48 4.6945939539000392e-04</internalNodes>
          <leafValues>
            1.9316889345645905e-01 -8.5406732559204102e-01</leafValues></_>
        <_>
          <internalNodes>
            0 -1 93 -1.1416703462600708e-02</internalNodes>
          <leafValues>
            4.0516206622123718e-01 -4.5924532413482666e-01</leafValues></_>
        <_>
          <internalNodes>
            0 -1 34 5.6943256640806794e-04</internalNodes>
          <leafValues>
            -6.9030165672302246e-01 3.0226078629493713e-01</leafValues></_>
        <_>
          <internalNodes>
            0 -1 62 1.8068768084049225e-02</internalNodes>
          <leafValues>
            2.7715894579887390e-01 -7.1760666370391846e-01</leafValues></_>
        <_>
          <internalNodes>
            0 -1 8 -4.3579237535595894e-03</internalNodes>
          <leafValues>
            3.2901725172996521e-01 -4.7902888059616089e-01</leafValues></_>
        <_>
          <internalNodes>
            0 -1 45 -3.0000184779055417e-04</internalNodes>
          <leafValues>
            -8.9818012714385986e-01 1.5818732976913452e-01</leafValues></_>
        <_>
          <internalNodes>
            0 -1 21 1.2388309463858604e-02</internalNodes>
          <leafValues>
            1.2988395988941193e-01 -8.8609117269515991e-01</leafValues></_>
        <_>
          <internalNodes>
            0 -1 78 3.7647411227226257e-04</internalNodes>
          <leafValues>
            1.4866405725479126e-01 -8.6560606956481934e-01</leafValues></_>
        <_>
          <internalNodes>
            0 -1 11 1.1730633676052094e-02</internalNodes>
          <leafValues>
            -5.8994841575622559e-01 2.2571423649787903e-01</leafValues></_></weakClassifiers></_>
    <!-- stage 7 -->
    <_>
      <maxWeakCount>12</maxWeakCount>
      <stageThreshold>-1.9971534013748169e+00</stageThreshold>
      <weakClassifiers>
        <_>
          <internalNodes>
            0 -1 102 1.8410030752420425e-02</internalNodes>
          <leafValues>
            -8.1161576509475708e-01 5.7324838638305664e-01</leafValues></_>
        <_>
          <internalNodes>
            0 -1 84 -4.2989747598767281e-03</internalNodes>
          <leafValues>
            5.2963680028915405e-01 -6.1656749248504639e-01</leafValues></_>
        <_>
          <internalNodes>
            0 -1 77 -2.6780283078551292e-03</internalNodes>
          <leafValues>
            4.0634587407112122e-01 -4.8061543703079224e-01</leafValues></_>
        <_>
          <internalNodes>
            0 -1 28 -4.1700908914208412e-03</internalNodes>
          <leafValues>
            2.4900770187377930e-01 -7.2619569301605225e-01</leafValues></_>
        <_>
          <internalNodes>
            0 -1 33 -1.2735083699226379e-02</internalNodes>
          <leafValues>
            -9.2291915416717529e-01 2.0231890678405762e-01</leafValues></_>
        <_>
          <internalNodes>
            0 -1 103 -8.5858693346381187e-03</internalNodes>
          <leafValues>
            7.0380473136901855e-01 -3.0960404872894287e-01</leafValues></_>
        <_>
          <internalNodes>
            0 -1 45 1.5267482376657426e-04</internalNodes>
          <leafValues>
            2.8505623340606689e-01 -6.8674194812774658e-01</leafValues></_>
        <_>
          <internalNodes>
            0 -1 82 9.3290838412940502e-04</internalNodes>
          <leafValues>
            3.4919574856758118e-01 -4.7763738036155701e-01</leafValues></_>
        <_>
          <internalNodes>
            0 -1 43 1.4299852773547173e-02</internalNodes>
          <leafValues>
            -4.0536385774612427e-01 3.7950339913368225e-01</leafValues></_>
        <_>
          <internalNodes>
            0 -1 22 3.0278735794126987e-03</internalNodes>
          <leafValues>
            1.7849186062812805e-01 -8.0237048864364624e-01</leafValues></_>
        <_>
          <internalNodes>
            0 -1 58 -1.4997195103205740e-04</internalNodes>
          <leafValues>
            2.5378420948982239e-01 -5.3452551364898682e-01</leafValues></_>
        <_>
          <internalNodes>
            0 -1 13 -1.4025835320353508e-02</internalNodes>
          <leafValues>
            -8.4935170412063599e-01 1.7386843264102936e-01</leafValues></_></weakClassifiers></_>
    <!-- stage 8 -->
    <_>
      <maxWeakCount>13</maxWeakCount>
      <stageThreshold>-2.0803482532501221e+00</stageThreshold>
      <weakClassifiers>
        <_>
          <internalNodes>
            0 -1 0 -1.5031621791422367e-02</internalNodes>
          <leafValues>
            3.9083558320999146e-01 -8.1589961051940918e-01</leafValues></_>
        <_>
          <internalNodes>
            0 -1 67 1.1389316990971565e-02</internalNodes>
          <leafValues>
            -5.8188402652740479e-01 5.3168010711669922e-01</leafValues></_>
        <_>
          <internalNodes>
            0 -1 81 -2.3335810750722885e-02</internalNodes>
          <leafValues>
            3.4193980693817139e-01 -6.4508813619613647e-01</leafValues></_>
        <_>
          <internalNodes>
            0 -1 74 4.4910967699252069e-04</internalNodes>
          <leafValues>
            -5.3158468008041382e-01 3.2616022229194641e-01</leafValues></_>
        <_>
          <internalNodes>
            0 -1 68 2.6480667293071747e-03</internalNodes>
          <leafValues>
            2.2424872219562531e-01 -9.4943481683731079e-01</leafValues></_>
        <_>
          <internalNodes>
            0 -1 92 1.9345177570357919e-03</internalNodes>
          <leafValues>
            -4.8110967874526978e-01 3.1953042745590210e-01</leafValues></_>
        <_>
          <internalNodes>
            0 -1 50 2.0468885079026222e-02</internalNodes>
          <leafValues>
            2.0076376199722290e-01 -8.2919335365295410e-01</leafValues></_>
        <_>
          <internalNodes>
            0 -1 59 -2.2409141529351473e-03</internalNodes>
          <leafValues>
            -7.5701582431793213e-01 1.6621734201908112e-01</leafValues></_>
        <_>
          <internalNodes>
            0 -1 69 1.1101728305220604e-03</internalNodes>
          <leafValues>
            1.4137689769268036e-01 -9.0360480546951294e-01</leafValues></_>
        <_>
          <internalNodes>
            0 -1 5 -1.8740404397249222e-02</internalNodes>
          <leafValues>
            5.3647434711456299e-01 -3.0150195956230164e-01</leafValues></_>
        <_>
          <internalNodes>
            0 -1 56 5.7922932319343090e-04</internalNodes>
          <leafValues>
            -5.9372556209564209e-01 2.9321157932281494e-01</leafValues></_>
        <_>
          <internalNodes>
            0 -1 42 -2.0845497492700815e-03</internalNodes>
          <leafValues>
            -7.8375422954559326e-01 1.6951446235179901e-01</leafValues></_>
        <_>
          <internalNodes>
            0 -1 46 -1.4446387067437172e-03</internalNodes>
          <leafValues>
            -6.7029225826263428e-01 1.6850000619888306e-01</leafValues></_></weakClassifiers></_>
    <!-- stage 9 -->
    <_>
      <maxWeakCount>15</maxWeakCount>
      <stageThreshold>-2.0524215698242188e+00</stageThreshold>
      <weakClassifiers>
        <_>
          <internalNodes>
            0 -1 65 -1.3978945091366768e-02</internalNodes>
          <leafValues>
            3.2360097765922546e-01 -8.2387024164199829e-01</leafValues></_>
        <_>
          <internalNodes>
            0 -1 14 9.3037448823451996e-03</internalNodes>
          <leafValues>
            -5.4423034191131592e-01 4.6257996559143066e-01</leafValues></_>
        <_>
          <internalNodes>
            0 -1 10 -2.8910515829920769e-03</internalNodes>
          <leafValues>
            3.1755486130714417e-01 -5.4258722066879272e-01</leafValues></_>
        <_>
          <internalNodes>
            0 -1 94 9.2131001874804497e-03</internalNodes>
          <leafValues>
            -4.4731214642524719e-01 3.7371984124183655e-01</leafValues></_>
        <_>
          <internalNodes>
            0 -1 51 -1.3054928276687860e-03</internalNodes>
          <leafValues>
            -7.9397302865982056e-01 2.0811119675636292e-01</leafValues></_>
        <_>
          <internalNodes>
            0 -1 76 -4.5580422738566995e-04</internalNodes>
          <leafValues>
            -9.1007113456726074e-01 1.5496365725994110e-01</leafValues></_>
        <_>
          <internalNodes>
            0 -1 57 -1.0396654251962900e-03</internalNodes>
          <leafValues>
            3.8629409670829773e-01 -3.8919013738632202e-01</leafValues></_>
        <_>
          <internalNodes>
            0 -1 85 3.8460693322122097e-03</internalNodes>
          <leafValues>
            -2.0632211863994598e-01 6.3858318328857422e-01</leafValues></_>
        <_>
          <internalNodes>
            0 -1 100 6.1447173357009888e-03</internalNodes>
          <leafValues>
            -2.5312253832817078e-01 5.3126555681228638e-01</leafValues></_>
        <_>
          <internalNodes>
            0 -1 1 -4.7076307237148285e-03</internalNodes>
          <leafValues>
            2.2717383503913879e-01 -7.0434641838073730e-01</leafValues></_>
        <_>
          <internalNodes>
            0 -1 6 -1.7780656926333904e-03</internalNodes>
          <leafValues>
            5.2314066886901855e-01 -3.0408060550689697e-01</leafValues></_>
        <_>
          <internalNodes>
            0 -1 60 4.3981370981782675e-04</internalNodes>
          <leafValues>
            2.1659645438194275e-01 -6.5482664108276367e-01</leafValues></_>
        <_>
          <internalNodes>
            0 -1 4 6.7220586352050304e-03</internalNodes>
          <leafValues>
            -2.7492055296897888e-01 5.1771503686904907e-01</leafValues></_>
        <_>
          <internalNodes>
            0 -1 79 -2.4761017411947250e-02</internalNodes>
          <leafValues>
            7.2843909263610840e-01 -1.9340817630290985e-01</leafValues></_>
        <_>
          <internalNodes>
            0 -1 86 -1.2708528898656368e-02</internalNodes>
          <leafValues>
            4.8928639292716980e-01 -3.1530407071113586e-01</leafValues></_></weakClassifiers></_></stages>
  <features>
    <_>
      <rects>
        <_>
          0 6 2 11 -1.</_>
        <_>
          1 6 1 11 2.</_></rects>
      <tilted>0</tilted></_>
    <_>
      <rects>
        <_>
          0 10 23 6 -1.</_>
        <_>
          0 13 23 3 2.</_></rects>
      <tilted>0</tilted></_>
    <_>
      <rects>
        <_>
          1 0 8 8 -1.</_>
        <_>
          1 0 4 4 2.</_>
        <_>
          5 4 4 4 2.</_></rects>
      <tilted>0</tilted></_>
    <_>
      <rects>
        <_>
          1 0 10 6 -1.</_>
        <_>
          1 0 5 3 2.</_>
        <_>
          6 3 5 3 2.</_></rects>
      <tilted>0</tilted></_>
    <_>
      <rects>
        <_>
          1 16 4 6 -1.</_>
        <_>
          1 16 2 3 2.</_>
        <_>
          3 19 2 3 2.</_></rects>
      <tilted>0</tilted></_>
    <_>
      <rects>
        <_>
          2 0 6 6 -1.</_>
        <_>
          2 0 3 3 2.</_>
        <_>
          5 3 3 3 2.</_></rects>
      <tilted>0</tilted></_>
    <_>
      <rects>
        <_>
          2 11 4 2 -1.</_>
        <_>
          2 11 2 1 2.</_>
        <_>
          4 12 2 1 2.</_></rects>
      <tilted>0</tilted></_>
    <_>
      <rects>
        <_>
          2 11 4 4 -1.</_>
        <_>
          4 11 2 4 2.</_></rects>
      <tilted>0</tilted></_>
    <_>
      <rects>
        <_>
          2 13 4 6 -1.</_>
        <_>
          2 13 2 3 2.</_>
        <_>
          4 16 2 3 2.</_></rects>
      <tilted>0</tilted></_>
    <_>
      <rects>
        <_>
          2 18 6 6 -1.</_>
        <_>
          2 18 3 3 2.</_>
        <_>
          5 21 3 3 2.</_></rects>
      <tilted>0</tilted></_>
    <_>
      <rects>
        <_>
          3 3 5 4 -1.</_>
        <_>
          3 5 5 2 2.</_></rects>
      <tilted>0</tilted></_>
    <_>
      <rects>
        <_>
          3 3 10 8 -1.</_>
        <_>
          3 3 5 4 2.</_>
        <_>
          8 7 5 4 2.</_></rects>
      <tilted>0</tilted></_>
    <_>
      <rects>
        <_>
          3 4 14 8 -1.</_>
        <_>
          10 4 7 8 2.</_></rects>
      <tilted>0</tilted></_>
    <_>
      <rects>
        <_>
          3 8 10 6 -1.</_>
        <_>
          3 8 5 3 2.</_>
        <_>
          8 11 5 3 2.</_></rects>
      <tilted>0</tilted></_>
    <_>
      <rects>
        <_>
          3 10 4 4 -1.</_>
        <_>
          3 10 2 2 2.</_>
        <_>
          5 12 2 2 2.</_></rects>
      <tilted>0</tilted></_>
    <_>
      <rects>
        <_>
          3 11 4 2 -1.</_>
        <_>
          3 11 2 1 2.</_>
        <_>
          5 12 2 1 2.</_></rects>
      <tilted>0</tilted></_>
    <_>
      <rects>
        <_>
          3 11 8 9 -1.</_>
        <_>
          7 11 4 9 2.</_></rects>
      <tilted>0</tilted></_>
    <_>
      <rects>
        <_>
          4 0 13 6 -1.</_>
        <_>
          4 3 13 3 2.</_></rects>
      <tilted>0</tilted></_>
    <_>
      <rects>
        <_>
          4 2 4 19 -1.</_>
        <_>
          6 2 2 19 2.</_></rects>
      <tilted>0</tilted></_>
    <_>
      <rects>
        <_>
          4 3 4 13 -1.</_>
        <_>
          6 3 2 13 2.</_></rects>
      <tilted>0</tilted></_>
    <_>
      <rects>
        <_>
          4 6 16 4 -1.</_>
        <_>
          4 8 16 2 2.</_></rects>
      <tilted>0</tilted></_>
    <_>
      <rects>
        <_>
          4 8 5 6 -1.</_>
        <_>
          4 11 5 3 2.</_></rects>
      <tilted>0</tilted></_>
    <_>
      <rects>
        <_>
          4 12 6 4 -1.</_>
        <_>
          7 12 3 4 2.</_></rects>
      <tilted>0</tilted></_>
    <_>
      <rects>
        <_>
          5 6 9 4 -1.</_>
        <_>
          5 8 9 2 2.</_></rects>
      <tilted>0</tilted></_>
    <_>
      <rects>
        <_>
          6 2 4 8 -1.</_>
        <_>
          6 2 2 4 2.</_>
        <_>
          8 6 2 4 2.</_></rects>
      <tilted>0</tilted></_>
    <_>
      <rects>
        <_>
          6 3 8 12 -1.</_>
        <_>
          6 9 8 6 2.</_></rects>
      <tilted>0</tilted></_>
    <_>
      <rects>
        <_>
          6 8 4 7 -1.</_>
        <_>
          8 8 2 7 2.</_></rects>
      <tilted>0</tilted></_>
    <_>
      <rects>
        <_>
          6 11 8 2 -1.</_>
        <_>
          6 12 8 1 2.</_></rects>
      <tilted>0</tilted></_>
    <_>
      <rects>
        <_>
          6 12 3 6 -1.</_>
        <_>
          6 15 3 3 2.</_></rects>
      <tilted>0</tilted></_>
    <_>
      <rects>
        <_>
          6 13 3 6 -1.</_>
        <_>
          6 16 3 3 2.</_></rects>
      <tilted>0</tilted></_>
    <_>
      <rects>
        <_>
          6 17 10 4 -1.</_>
        <_>
          11 17 5 4 2.</_></rects>
      <tilted>0</tilted></_>
    <_>
      <rects>
        <_>
          7 0 10 4 -1.</_>
        <_>
          7 2 10 2 2.</_></rects>
      <tilted>0</tilted></_>
    <_>
      <rects>
        <_>
          7 3 12 13 -1.</_>
        <_>
          13 3 6 13 2.</_></rects>
      <tilted>0</tilted></_>
    <_>
      <rects>
        <_>
          7 5 1 18 -1.</_>
        <_>
          7 14 1 9 2.</_></rects>
      <tilted>0</tilted></_>
    <_>
      <rects>
        <_>
          7 10 14 2 -1.</_>
        <_>
          14 10 7 2 2.</_></rects>
      <tilted>0</tilted></_>
    <_>
      <rects>
        <_>
          7 11 16 4 -1.</_>
        <_>
          7 11 8 2 2.</_>
        <_>
          15 13 8 2 2.</_></rects>
      <tilted>0</tilted></_>
    <_>
      <rects>
        <_>
          7 20 10 4 -1.</_>
        <_>
          7 22 10 2 2.</_></rects>
      <tilted>0</tilted></_>
    <_>
      <rects>
        <_>
          7 22 11 2 -1.</_>
        <_>
          7 23 11 1 2.</_></rects>
      <tilted>0</tilted></_>
    <_>
      <rects>
        <_>
          8 3 8 18 -1.</_>
        <_>
          8 9 8 6 2.</_></rects>
      <tilted>0</tilted></_>
    <_>
      <rects>
        <_>
          8 8 3 6 -1.</_>
        <_>
          8 11 3 3 2.</_></rects>
      <tilted>0</tilted></_>
    <_>
      <rects>
        <_>
          8 8 8 10 -1.</_>
        <_>
          8 8 4 5 2.</_>
        <_>
          12 13 4 5 2.</_></rects>
      <tilted>0</tilted></_>
    <_>
      <rects>
        <_>
          8 10 2 5 -1.</_>
        <_>
          9 10 1 5 2.</_></rects>
      <tilted>0</tilted></_>
    <_>
      <rects>
        <_>
          8 11 6 2 -1.</_>
        <_>
          11 11 3 2 2.</_></rects>
      <tilted>0</tilted></_>
    <_>
      <rects>
        <_>
          8 20 7 4 -1.</_>
        <_>
          8 22 7 2 2.</_></rects>
      <tilted>0</tilted></_>
    <_>
      <rects>
        <_>
          9 1 6 12 -1.</_>
        <_>
          9 1 3 6 2.</_>
        <_>
          12 7 3 6 2.</_></rects>
      <tilted>0</tilted></_>
    <_>
      <rects>
        <_>
          9 4 2 2 -1.</_>
        <_>
          9 4 1 1 2.</_>
        <_>
          10 5 1 1 2.</_></rects>
      <tilted>0</tilted></_>
    <_>
      <rects>
        <_>
          9 4 7 2 -1.</_>
        <_>
          9 5 7 1 2.</_></rects>
      <tilted>0</tilted></_>
    <_>
      <rects>
        <_>
          9 10 2 5 -1.</_>
        <_>
          10 10 1 5 2.</_></rects>
      <tilted>0</tilted></_>
    <_>
      <rects>
        <_>
          9 11 2 2 -1.</_>
        <_>
          9 12 2 1 2.</_></rects>
      <tilted>0</tilted></_>
    <_>
      <rects>
        <_>
          9 11 3 6 -1.</_>
        <_>
          9 14 3 3 2.</_></rects>
      <tilted>0</tilted></_>
    <_>
      <rects>
        <_>
          9 11 6 8 -1.</_>
        <_>
          12 11 3 8 2.</_></rects>
      <tilted>0</tilted></_>
    <_>
      <rects>
        <_>
          9 11 5 2 -1.</_>
        <_>
          9 12 5 1 2.</_></rects>
      <tilted>0</tilted></_>
    <_>
      <rects>
        <_>
          9 12 2 3 -1.</_>
        <_>
          10 12 1 3 2.</_></rects>
      <tilted>0</tilted></_>
    <_>
      <rects>
        <_>
          9 12 12 6 -1.</_>
        <_>
          9 15 12 3 2.</_></rects>
      <tilted>0</tilted></_>
    <_>
      <rects>
        <_>
          9 20 6 1 -1.</_>
        <_>
          12 20 3 1 2.</_></rects>
      <tilted>0</tilted></_>
    <_>
      <rects>
        <_>
          10 5 3 6 -1.</_>
        <_>
          10 8 3 3 2.</_></rects>
      <tilted>0</tilted></_>
    <_>
      <rects>
        <_>
          10 7 4 10 -1.</_>
        <_>
          10 7 2 5 2.</_>
        <_>
          12 12 2 5 2.</_></rects>
      <tilted>0</tilted></_>
    <_>
      <rects>
        <_>
          10 8 2 3 -1.</_>
        <_>
          11 8 1 3 2.</_></rects>
      <tilted>0</tilted></_>
    <_>
      <rects>
        <_>
          10 9 5 2 -1.</_>
        <_>
          10 10 5 1 2.</_></rects>
      <tilted>0</tilted></_>
    <_>
      <rects>
        <_>
          10 12 6 10 -1.</_>
        <_>
          13 12 3 10 2.</_></rects>
      <tilted>0</tilted></_>
    <_>
      <rects>
        <_>
          10 15 1 4 -1.</_>
        <_>
          10 17 1 2 2.</_></rects>
      <tilted>0</tilted></_>
    <_>
      <rects>
        <_>
          10 20 4 1 -1.</_>
        <_>
          12 20 2 1 2.</_></rects>
      <tilted>0</tilted></_>
    <_>
      <rects>
        <_>
          11 3 6 20 -1.</_>
        <_>
          14 3 3 20 2.</_></rects>
      <tilted>0</tilted></_>
    <_>
      <rects>
        <_>
          11 5 6 2 -1.</_>
        <_>
          11 5 3 1 2.</_>
        <_>
          14 6 3 1 2.</_></rects>
      <tilted>0</tilted></_>
    <_>
      <rects>
        <_>
          11 7 4 3 -1.</_>
        <_>
          13 7 2 3 2.</_></rects>
      <tilted>0</tilted></_>
    <_>
      <rects>
        <_>
          11 8 4 4 -1.</_>
        <_>
          11 8 2 2 2.</_>
        <_>
          13 10 2 2 2.</_></rects>
      <tilted>0</tilted></_>
    <_>
      <rects>
        <_>
          11 9 2 6 -1.</_>
        <_>
          12 9 1 6 2.</_></rects>
      <tilted>0</tilted></_>
    <_>
      <rects>
        <_>
          11 10 2 5 -1.</_>
        <_>
          12 10 1 5 2.</_></rects>
      <tilted>0</tilted></_>
    <_>
      <rects>
        <_>
          11 11 6 2 -1.</_>
        <_>
          11 12 6 1 2.</_></rects>
      <tilted>0</tilted></_>
    <_>
      <rects>
        <_>
          11 17 4 1 -1.</_>
        <_>
          13 17 2 1 2.</_></rects>
      <tilted>0</tilted></_>
    <_>
      <rects>
        <_>
          12 2 3 20 -1.</_>
        <_>
          12 12 3 10 2.</_></rects>
      <tilted>0</tilted></_>
    <_>
      <rects>
        <_>
          12 3 4 18 -1.</_>
        <_>
          12 9 4 6 2.</_></rects>
      <tilted>0</tilted></_>
    <_>
      <rects>
        <_>
          12 10 2 4 -1.</_>
        <_>
          13 10 1 4 2.</_></rects>
      <tilted>0</tilted></_>
    <_>
      <rects>
        <_>
          12 11 2 6 -1.</_>
        <_>
          12 11 1 3 2.</_>
        <_>
          13 14 1 3 2.</_></rects>
      <tilted>0</tilted></_>
    <_>
      <rects>
        <_>
          12 11 4 4 -1.</_>
        <_>
          12 13 4 2 2.</_></rects>
      <tilted>0</tilted></_>
    <_>
      <rects>
        <_>
          12 13 10 6 -1.</_>
        <_>
          12 13 5 3 2.</_>
        <_>
          17 16 5 3 2.</_></rects>
      <tilted>0</tilted></_>
    <_>
      <rects>
        <_>
          12 17 2 1 -1.</_>
        <_>
          13 17 1 1 2.</_></rects>
      <tilted>0</tilted></_>
    <_>
      <rects>
        <_>
          13 3 8 4 -1.</_>
        <_>
          13 3 4 2 2.</_>
        <_>
          17 5 4 2 2.</_></rects>
      <tilted>0</tilted></_>
    <_>
      <rects>
        <_>
          13 4 1 2 -1.</_>
        <_>
          13 5 1 1 2.</_></rects>
      <tilted>0</tilted></_>
    <_>
      <rects>
        <_>
          14 1 10 5 -1.</_>
        <_>
          19 1 5 5 2.</_></rects>
      <tilted>0</tilted></_>
    <_>
      <rects>
        <_>
          14 5 2 6 -1.</_>
        <_>
          14 8 2 3 2.</_></rects>
      <tilted>0</tilted></_>
    <_>
      <rects>
        <_>
          14 5 10 10 -1.</_>
        <_>
          14 5 5 5 2.</_>
        <_>
          19 10 5 5 2.</_></rects>
      <tilted>0</tilted></_>
    <_>
      <rects>
        <_>
          14 6 6 2 -1.</_>
        <_>
          14 7 6 1 2.</_></rects>
      <tilted>0</tilted></_>
    <_>
      <rects>
        <_>
          14 10 2 3 -1.</_>
        <_>
          15 10 1 3 2.</_></rects>
      <tilted>0</tilted></_>
    <_>
      <rects>
        <_>
          14 12 2 4 -1.</_>
        <_>
          14 12 1 2 2.</_>
        <_>
          15 14 1 2 2.</_></rects>
      <tilted>0</tilted></_>
    <_>
      <rects>
        <_>
          14 22 2 2 -1.</_>
        <_>
          14 23 2 1 2.</_></rects>
      <tilted>0</tilted></_>
    <_>
      <rects>
        <_>
          15 3 8 6 -1.</_>
        <_>
          15 3 4 3 2.</_>
        <_>
          19 6 4 3 2.</_></rects>
      <tilted>0</tilted></_>
    <_>
      <rects>
        <_>
          15 3 4 18 -1.</_>
        <_>
          15 9 4 6 2.</_></rects>
      <tilted>0</tilted></_>
    <_>
      <rects>
        <_>
          15 10 2 2 -1.</_>
        <_>
          16 10 1 2 2.</_></rects>
      <tilted>0</tilted></_>
    <_>
      <rects>
        <_>
          16 5 2 12 -1.</_>
        <_>
          16 9 2 4 2.</_></rects>
      <tilted>0</tilted></_>
    <_>
      <rects>
        <_>
          16 5 6 10 -1.</_>
        <_>
          16 5 3 5 2.</_>
        <_>
          19 10 3 5 2.</_></rects>
      <tilted>0</tilted></_>
    <_>
      <rects>
        <_>
          16 12 6 8 -1.</_>
        <_>
          16 12 3 4 2.</_>
        <_>
          19 16 3 4 2.</_></rects>
      <tilted>0</tilted></_>
    <_>
      <rects>
        <_>
          16 17 4 4 -1.</_>
        <_>
          16 17 2 2 2.</_>
        <_>
          18 19 2 2 2.</_></rects>
      <tilted>0</tilted></_>
    <_>
      <rects>
        <_>
          16 17 8 6 -1.</_>
        <_>
          16 17 4 3 2.</_>
        <_>
          20 20 4 3 2.</_></rects>
      <tilted>0</tilted></_>
    <_>
      <rects>
        <_>
          17 13 4 6 -1.</_>
        <_>
          17 13 2 3 2.</_>
        <_>
          19 16 2 3 2.</_></rects>
      <tilted>0</tilted></_>
    <_>
      <rects>
        <_>
          18 6 4 2 -1.</_>
        <_>
          18 6 2 1 2.</_>
        <_>
          20 7 2 1 2.</_></rects>
      <tilted>0</tilted></_>
    <_>
      <rects>
        <_>
          19 15 2 6 -1.</_>
        <_>
          19 18 2 3 2.</_></rects>
      <tilted>0</tilted></_>
    <_>
      <rects>
        <_>
          20 6 2 6 -1.</_>
        <_>
          20 6 1 3 2.</_>
        <_>
          21 9 1 3 2.</_></rects>
      <tilted>0</tilted></_>
    <_>
      <rects>
        <_>
          20 13 4 4 -1.</_>
        <_>
          22 13 2 4 2.</_></rects>
      <tilted>0</tilted></_>
    <_>
      <rects>
        <_>
          21 6 2 11 -1.</_>
        <_>
          22 6 1 11 2.</_></rects>
      <tilted>0</tilted></_>
    <_>
      <rects>
        <_>
          21 9 2 5 -1.</_>
        <_>
          22 9 1 5 2.</_></rects>
      <tilted>0</tilted></_>
    <_>
      <rects>
        <_>
          21 9 2 6 -1.</_>
        <_>
          22 9 1 6 2.</_></rects>
      <tilted>0</tilted></_>
    <_>
      <rects>
        <_>
          22 7 2 9 -1.</_>
        <_>
          23 7 1 9 2.</_></rects>
      <tilted>0</tilted></_>
    <_>
      <rects>
        <_>
          22 9 2 8 -1.</_>
        <_>
          23 9 1 8 2.</_></rects>
      <tilted>0</tilted></_></features></cascade>
</opencv_storage>
